//<![CDATA[

// a few things don't have var in front of them - they update already existing variables the game needs
lanesSide = 1;            // # of lanes to each side an agent senses
patchesAhead = 8;         // # of cells ahead an agent senses
patchesBehind = 8;        // # of cells behind an agent senses
trainIterations = 10000;
otherAgents = 0;          // # of other autonomous vehicles controlled by your network, max of 10

var num_inputs = (lanesSide * 2 + 1) * (patchesAhead + patchesBehind);
var num_actions = 5;      // # of actions the car can take
var temporal_window = 3;  // # of pervious states an agent remembers
var network_size = num_inputs * temporal_window + num_actions * temporal_window + num_inputs;

var layer_defs = [];
    layer_defs.push({
    type: 'input',
    out_sx: 1,
    out_sy: 1,
    out_depth: network_size
});
layer_defs.push({
    type: 'fc',
    num_neurons: 10,
    activation: 'relu'
});
layer_defs.push({
    type: 'fc',
    num_neurons: 10,
    activation: 'relu'
});
layer_defs.push({
    type: 'fc',
    num_neurons: 5,
    activation: 'relu'
});
layer_defs.push({
    type: 'regression',
    num_neurons: num_actions
});

var tdtrainer_options = {
    learning_rate: 0.001,
    momentum: 0.7,
    batch_size: 64,
    l2_decay: 0.01
};

var opt = {
    temporal_window: temporal_window,
    experience_size: 3000,       // size of replay memory
    start_learn_threshold: 500,  // minimum # of examples in replay memory before learning
    gamma: 0.7,                  // future discount for reward
    learning_steps_total: 10000, // # of training iterations
    learning_steps_burnin: 1000, // # of random actions the agent takes before learning
    epsilon_min: 0.7,            // epsilon during training
    epsilon_test_time: 0.1,      // epsilon during testing
    layer_defs: layer_defs,
    tdtrainer_options: tdtrainer_options
}

brain = new deepqlearn.Brain(num_inputs, num_actions, opt);

learn = function (state, lastReward) {
    brain.backward(lastReward);
    var action = brain.forward(state);

    draw_net();
    draw_stats();
    return action;
}

//]]>

/*###########*/
if (brain) {
brain.value_net.fromJSON({"layers":[{"out_depth":207,"out_sx":1,"out_sy":1,"layer_type":"input"},{"out_depth":10,"out_sx":1,"out_sy":1,"layer_type":"fc","num_inputs":207,"l1_decay_mul":0,"l2_decay_mul":1,"filters":[{"sx":1,"sy":1,"depth":207,"w":{"0":0.282728152918266,"1":0.3336629197149969,"2":-0.053295676594962316,"3":0.1783206484333358,"4":0.4433388647193339,"5":-0.11086448652677394,"6":0.2590296420994601,"7":0.3155739036808897,"8":-0.12236727467197475,"9":0.21708937527023756,"10":0.3944801473239812,"11":-0.16032113540619505,"12":0.24189340036021767,"13":0.25257357954322784,"14":-0.15712346327669566,"15":0.3315696291720439,"16":-0.06084252124965946,"17":-0.07923424437194795,"18":0.29792366202230514,"19":0.11166810222764664,"20":-0.043780225394451776,"21":0.25221136128358834,"22":0.01855840897373491,"23":0.00764471944940502,"24":0.20294375205714904,"25":-0.10129261610454704,"26":-0.12841602106714944,"27":0.2390022738148831,"28":0.017260679981706845,"29":-0.016052325204266162,"30":0.22561962027538773,"31":-0.08713913844085328,"32":-0.016785268725154963,"33":0.31552326580135787,"34":-0.0744919815147807,"35":-0.17033139086519045,"36":0.0670168201181888,"37":-0.005203720116749366,"38":0.00183387979745698,"39":-0.04456854668179594,"40":0.0384683242940601,"41":-0.033908953926683486,"42":-0.0756637370797155,"43":0.01440949652420079,"44":0.03001333922080391,"45":-0.22459809408424602,"46":0.13956605156850194,"47":0.020689686673357518,"48":0.014054430690434933,"49":0.11406811029014245,"50":-0.0022940382876409883,"51":0.01601843682911755,"52":0.1253329607740685,"53":0.06929333996636323,"54":0.187144850932448,"55":-0.008130995433305721,"56":0.004257749735194646,"57":0.12962055947994985,"58":0.08315233237501722,"59":-0.05377266432486518,"60":0.20285904539879737,"61":0.004643294118584336,"62":-0.023445878510193564,"63":0.20292030834483293,"64":-0.020099355536372703,"65":-0.07548309522992117,"66":0.10725497805207747,"67":-0.042226833003736516,"68":-0.0942715136584861,"69":0.13595330266267633,"70":0.01164764059402254,"71":-0.13019676314707365,"72":0.07160212555484662,"73":-0.04177871929050675,"74":-0.15184649126968827,"75":0.10418852734768531,"76":-0.01720993515018132,"77":-0.05468052904968187,"78":0.0970242215299122,"79":-0.12075911940678595,"80":-0.04337580253678417,"81":0.11320414391519847,"82":-0.08532293828090724,"83":-0.045625498323634356,"84":0.05986645367984733,"85":-0.019127238284382966,"86":0.008957429236478137,"87":-0.11096303236461574,"88":-0.06121753945944628,"89":-0.021545139146237017,"90":0.09477368425311204,"91":-0.07272530927832209,"92":-0.02890487253399851,"93":-0.10475916461084232,"94":0.20952588848643333,"95":-0.000703386113078332,"96":-0.05861028543171842,"97":-0.06138854911394705,"98":-0.03717849921011491,"99":-0.04614256822348548,"100":-0.04060900948008701,"101":0.07350713735405973,"102":-0.0007057045620901578,"103":0.11998694957756206,"104":0.04040379206972432,"105":-0.01669735654716489,"106":-0.10981512873932761,"107":0.04706829674272872,"108":0.17573569100696687,"109":-0.023205281661529915,"110":0.11700446320082593,"111":0.03917432182576708,"112":0.01239279110875626,"113":0.052808206352495626,"114":0.048353015431402455,"115":0.048030183675843136,"116":0.16139132206862009,"117":-0.15207916354514803,"118":-0.09677422166455167,"119":0.1715057327667998,"120":0.03380154815285576,"121":-0.10714652411134538,"122":0.14750265842508983,"123":-0.023801473686766716,"124":0.06404141385377271,"125":0.056612995729847265,"126":-0.01999891507207038,"127":-0.012986714290944895,"128":0.011938115748262217,"129":-0.024115997620719337,"130":0.06920384333035391,"131":0.15333077197819422,"132":0.060894779578436836,"133":0.0628846300193763,"134":0.16116203377610352,"135":-0.05131108270166072,"136":0.03118420632621839,"137":-0.000917960723060277,"138":-0.016285401210126088,"139":-0.052003480290779835,"140":0.1331505880965954,"141":-0.02056097651265852,"142":0.03821211594284831,"143":-0.06913083593907078,"144":0.03125684215877241,"145":0.002588120627077428,"146":-0.1135220745330447,"147":0.02849808840463219,"148":-0.022261746015502126,"149":-0.007598058812620121,"150":-0.005180853925151542,"151":0.00033710642130215743,"152":0.015299002250074918,"153":0.022344260757935535,"154":-0.0010646026382221984,"155":-0.09993361878366878,"156":-0.07894024212930624,"157":0.03299778667611618,"158":-0.007980798061613456,"159":-0.02086734521049145,"160":0.07581168290738974,"161":-0.010337421643050786,"162":0.09702245556524797,"163":0.014910981747481624,"164":-0.08877881836823845,"165":0.027194036127159052,"166":-0.020346226658512497,"167":0.0063243147377467,"168":-0.1584140607072294,"169":0.14064421393941515,"170":0.026854325170986345,"171":0.004895936376864887,"172":0.1398085340288918,"173":0.04175535473435334,"174":-0.06296230562589404,"175":-0.010870866698369761,"176":0.06307559742518823,"177":0.022390842925874593,"178":0.2108104766598061,"179":0.021465764820169497,"180":-0.03668505469742151,"181":0.13446088853496266,"182":-0.03948298695837423,"183":-0.11056448599461707,"184":0.02232221794051857,"185":0.035238010275185555,"186":-0.09288951047400082,"187":0.05272393988634175,"188":0.100404225007659,"189":0.06994789894369609,"190":0.0387184476752596,"191":0.10903958843260284,"192":-0.0198358163700137,"193":-0.014457088016640614,"194":-0.039863724624596426,"195":0.06423013708917742,"196":0.04192578714614449,"197":-0.0554721661816256,"198":-0.11593898536645829,"199":-0.14080314777619912,"200":0.039578664414679256,"201":0.07717563014452399,"202":-0.023997782257452107,"203":-0.04614638702555678,"204":-0.012764634637040828,"205":-0.0251800964559381,"206":-0.013282760892688428}},{"sx":1,"sy":1,"depth":207,"w":{"0":0.4993115382333951,"1":0.8690211810072184,"2":0.33697318537449994,"3":0.14626160132749863,"4":0.8416000596771501,"5":0.06887153596413752,"6":0.28709663568522464,"7":0.6720368123869797,"8":0.0935379360564805,"9":0.3756470758071853,"10":0.8010321424234622,"11":0.21970082979811525,"12":0.34033337519299456,"13":0.8008675745471305,"14":0.17372128913566295,"15":0.487050024108889,"16":0.1423069260287764,"17":0.15477016300086383,"18":0.31441480019243795,"19":0.10567118413752459,"20":0.11135941244410934,"21":0.3414510132374704,"22":0.07404312484974897,"23":0.19714167507263664,"24":0.25506854935644996,"25":0.04293018301060817,"26":0.052309404925722745,"27":0.20859167855371935,"28":-0.0336992196682064,"29":0.08364502791341154,"30":0.11788372260898734,"31":0.1131780319649487,"32":0.07780831999406165,"33":0.21424992429577425,"34":0.07548066591237786,"35":0.0459173662211304,"36":0.08012086209399172,"37":0.07191879410887854,"38":0.00252924001148241,"39":0.013610101313879137,"40":0.004230666054142496,"41":-0.0614483329464381,"42":-0.18531316376832913,"43":-0.10650678214408472,"44":-0.09506392575091975,"45":-0.2825870505026119,"46":0.04932794390547841,"47":-0.15042197790615042,"48":0.11041066592523929,"49":-0.046099990956781224,"50":0.034055102238229995,"51":0.1649989292449403,"52":0.08086901466481144,"53":0.063271449812377,"54":0.28183662146867144,"55":-0.06940990782552595,"56":0.000048767518596958165,"57":0.25950399525118234,"58":0.18300098098219483,"59":0.11449521054354918,"60":0.18010949427733397,"61":0.045622068342147104,"62":0.09545429158711295,"63":0.22826158067565264,"64":0.02038907231550655,"65":0.02348682776408151,"66":0.35871207157219953,"67":-0.040765661777431475,"68":0.08881270716422242,"69":0.1876909387665695,"70":0.02331450802794436,"71":0.0962191853791542,"72":0.08948443472928266,"73":-0.04135421725846605,"74":0.0024957159589059042,"75":0.09723644080442044,"76":-0.028623079777907408,"77":0.0914100211636903,"78":0.09515579858965975,"79":0.018720202644234143,"80":-0.07783384782405696,"81":0.02266269218944378,"82":0.070820275104163,"83":0.07340235742888365,"84":-0.022501390293247384,"85":-0.0708416972674163,"86":0.026001834626215622,"87":0.08162899969202081,"88":-0.046060481243513654,"89":-0.016739374341855937,"90":-0.1620808503127673,"91":0.06781253312839217,"92":0.008181623749309475,"93":-0.18908133972856675,"94":0.021138963449983707,"95":-0.10880381463204905,"96":0.00563265716380653,"97":0.01946741041278774,"98":0.001150523491500551,"99":0.016986848284094587,"100":0.014338011841227745,"101":-0.10038086972603065,"102":0.017286761608883542,"103":-0.10778227978127329,"104":-0.016618223845090725,"105":0.1049341061142812,"106":0.03836491035713773,"107":0.0913600618137816,"108":-0.07128600008470463,"109":-0.005593310288104255,"110":0.13810742431013306,"111":0.11306116407917567,"112":-0.0042838805004767775,"113":0.0018615895232683573,"114":-0.03835543102538164,"115":-0.026059811173168548,"116":0.18519902580319197,"117":0.06740709513598239,"118":0.06434365551982028,"119":0.0976700219105065,"120":0.11831355158345665,"121":0.1057961608512969,"122":0.1615819687152017,"123":0.07801113630319646,"124":-0.010524651479012414,"125":0.06890969718936256,"126":0.03655570592098492,"127":-0.06003901859614902,"128":0.04355439442702483,"129":0.10198929323018023,"130":0.06849062177603314,"131":-0.007971622557876708,"132":-0.03261875780658201,"133":-0.07153836377521583,"134":-0.001953838454249221,"135":0.049827698839659505,"136":-0.01540634143147493,"137":0.07350611967951085,"138":-0.07091652812444534,"139":-0.07034901510550542,"140":-0.045412369472049484,"141":-0.010553034798574562,"142":0.08070375866320564,"143":-0.01418407565077932,"144":0.07000076648267768,"145":-0.09839131106787635,"146":-0.043668173844378745,"147":0.07360276988836449,"148":-0.07665982130484608,"149":-0.004103928662084976,"150":0.0028053917536583184,"151":-0.037615969921847174,"152":-0.002743238546526283,"153":-0.006487580762076924,"154":-0.05391129889960833,"155":0.07987753547718895,"156":-0.07200639505016224,"157":0.0445894701208896,"158":0.02828747292034254,"159":-0.025994380548410786,"160":0.05497602639525153,"161":0.005641901274795712,"162":-0.0720730555069804,"163":0.031632503846078366,"164":0.06733891978088206,"165":-0.036879352334855925,"166":0.0791575878179854,"167":0.024811831476244547,"168":-0.11572901820802406,"169":0.052026933058454024,"170":-0.042056770800080495,"171":-0.048965371512840375,"172":0.11223701111459905,"173":-0.10479411213627227,"174":0.019049032280056992,"175":0.027617413432725925,"176":0.06017915260063339,"177":0.020629192348850543,"178":0.004277837938975519,"179":-0.045862717492726385,"180":0.06018367294067942,"181":0.005820599409495178,"182":0.0037854537917994956,"183":-0.10775497605637163,"184":-0.006849630162973732,"185":-0.06796273063626318,"186":0.055981255680686896,"187":0.05266972533636201,"188":0.028883508067130668,"189":-0.04225931113281698,"190":0.031428377175920605,"191":0.0026130799409335944,"192":0.04457595466327236,"193":0.03334920320931118,"194":0.05216299139852117,"195":-0.053074153086710936,"196":-0.03573509760004659,"197":0.044835691159369126,"198":0.06611779419671261,"199":-0.10458315401827827,"200":0.05381383769004061,"201":0.006279484523454586,"202":0.029463735613875632,"203":0.029950088544283732,"204":0.008578376345266057,"205":0.01614249828898736,"206":0.02641641993634899}},{"sx":1,"sy":1,"depth":207,"w":{"0":0.09061808146552051,"1":0.02072297535588365,"2":-0.07302918266224738,"3":0.11217812368824548,"4":0.037173488582478584,"5":-0.014049229240344198,"6":0.0407054286927698,"7":-0.03501486582367352,"8":-0.030365833030233425,"9":-0.07205054285323868,"10":0.03347292979991658,"11":-0.07192476107063094,"12":-0.10226362199745026,"13":-0.02786921623327791,"14":0.10572936869479649,"15":0.0056199299381359995,"16":-0.08905120620795402,"17":-0.15018961581590293,"18":-0.09093976316532745,"19":-0.14459266190544534,"20":0.015011922200146598,"21":0.005965526090371841,"22":-0.010734474542436924,"23":0.018373527724992938,"24":-0.03442034501008729,"25":0.01742427785761141,"26":-0.11001929509057036,"27":-0.08479978892154597,"28":0.13390960322474335,"29":0.08934563127140592,"30":0.04695729093152845,"31":9.856704701873664e-7,"32":-0.0878327563245606,"33":0.020572476549427884,"34":0.006971394229578845,"35":0.061913504171608624,"36":0.03521734409809327,"37":-0.04585817301744273,"38":-0.04210182439080772,"39":-0.02026922315369982,"40":0.09675244139954589,"41":-0.06190776756122144,"42":0.08856637742273459,"43":0.05359436448327066,"44":-0.03613264325801054,"45":0.0329373575841384,"46":-0.06855495265451327,"47":0.14174559710988202,"48":0.03126058922206577,"49":0.12262803937983721,"50":0.03483977006137154,"51":0.1821790352929841,"52":-0.09483143316673322,"53":0.026016084731430987,"54":0.04348652684953226,"55":0.06283031908864305,"56":0.0352838931125764,"57":0.10119770737642855,"58":0.03710161140407633,"59":-0.03839426560487787,"60":0.04060907036795717,"61":0.002211748752086211,"62":-0.0886778622061493,"63":-0.06107563596135069,"64":0.06799124933720453,"65":0.007093215439794964,"66":0.017367274741585455,"67":-0.04637676862356182,"68":-0.15802194454921994,"69":0.06985310393778996,"70":-0.07773860502416852,"71":-0.02998410894656706,"72":0.11697336091434511,"73":-0.007080880591490556,"74":-0.03902525191798156,"75":-0.040319432728462876,"76":0.09396744698552353,"77":0.13777102759079274,"78":-0.0445492207890475,"79":0.06639317536309809,"80":-0.024920957525304703,"81":0.023037137714930378,"82":0.03457224800206114,"83":-0.06918183706212261,"84":0.059502640835490846,"85":0.027822787451257443,"86":0.10168229753637986,"87":0.15141578089713476,"88":-0.11431182451190965,"89":0.05967999643814037,"90":0.0023559948339739365,"91":0.0867476537652987,"92":0.06389418764452201,"93":-0.010135305897356044,"94":-0.08589818728065365,"95":0.09963371571370964,"96":0.007798659245906656,"97":-0.03943694669239487,"98":-0.03365687855931442,"99":-0.028176887833282444,"100":-0.022617439420441535,"101":-0.003327910154685939,"102":0.07345581601680339,"103":0.0985794748036725,"104":0.005480330111456909,"105":-0.018772212938888796,"106":0.034633708864908554,"107":0.07217870186456707,"108":-0.03141748273086905,"109":-0.015245144302276302,"110":-0.0811010261061408,"111":-0.047903982369333506,"112":0.1169242701330209,"113":-0.03342899608296878,"114":0.04420544950371253,"115":-0.01797046355776141,"116":-0.015132500670857732,"117":-0.034991402537241194,"118":-0.042910352074142066,"119":-0.1310377694862321,"120":-0.031004307656981395,"121":-0.18858981056163227,"122":-0.029800818983344288,"123":0.11500116722973401,"124":-0.050572750818606876,"125":0.04079670796301028,"126":0.07117525090560206,"127":0.12784584244622701,"128":0.0268040693625162,"129":-0.08022500993514185,"130":0.033267826287094286,"131":-0.05757100513992531,"132":0.030231894644256567,"133":-0.1710152805137436,"134":0.004616747049572739,"135":-0.04767262948213708,"136":-0.020184569700994495,"137":-0.06979880183023453,"138":0.02073771062901573,"139":0.028045400688307107,"140":-0.0028536044900990746,"141":-0.06546801146519311,"142":0.10872306918683175,"143":-0.05631488032896253,"144":-0.027677170406479334,"145":-0.054908220338317305,"146":0.030350039852883464,"147":-0.10922223362342255,"148":0.01194868261834644,"149":-0.06139873373847946,"150":-0.11261977981848668,"151":-0.042215885167589895,"152":-0.022972551083161888,"153":-0.05583786554407256,"154":-0.011256604217939637,"155":-0.0821263823034088,"156":-0.022475797198334185,"157":0.09517214893768328,"158":0.1314706065483162,"159":-0.061873779335788755,"160":-0.014223338385359843,"161":0.05938504873222839,"162":-0.043469607535754455,"163":0.10260582910446789,"164":0.0020814754072109964,"165":-0.009912392297341768,"166":0.05332646843639471,"167":0.04706254236741195,"168":-0.10297301557521558,"169":0.020874247681382366,"170":0.10673426875122281,"171":-0.12401230168773196,"172":0.001196638400171208,"173":-0.12809186731415648,"174":-0.017147965168313684,"175":-0.02555003841322632,"176":0.022605900838377366,"177":0.05296541396763359,"178":0.00965418011689636,"179":0.09794132834197267,"180":-0.09941589218527948,"181":-0.1027384011132286,"182":-0.03322953890097585,"183":0.03155668304342943,"184":0.04830576271076654,"185":0.045271249607885755,"186":0.008048978931092587,"187":-0.04135888525100521,"188":0.09126459034774557,"189":0.036771557739121205,"190":-0.050603553239517665,"191":0.05126038102666248,"192":-0.00923312294288353,"193":-0.05442193796199542,"194":-0.06083420425799242,"195":-0.03895742871589099,"196":-0.06878957305298068,"197":-0.05431985146242172,"198":-0.17175735659645175,"199":-0.21710905791050256,"200":0.032954799739081934,"201":0.042438173719475794,"202":-0.048043483396692885,"203":-0.07089311123736296,"204":0.008260538053141185,"205":0.05243374689368316,"206":-0.0054500022032240554}},{"sx":1,"sy":1,"depth":207,"w":{"0":-0.04459190869478966,"1":-0.04782047810385438,"2":-0.03957098228502028,"3":0.07392309355039717,"4":-0.04318193618094277,"5":0.00915579433024809,"6":-0.10453187554670725,"7":-0.052209366633902146,"8":-0.044107589983472126,"9":0.049759589735041396,"10":-0.02466755701506885,"11":-0.05029936851727251,"12":-0.09696367680437766,"13":0.14117965130582136,"14":-0.05015042228239436,"15":-0.03879677057386591,"16":-0.03315015408711573,"17":-0.04896833615762865,"18":-0.1889376936945749,"19":0.02275111435124052,"20":-0.0011131201473760038,"21":-0.03379883671422709,"22":0.0812096740706222,"23":0.010353532048076578,"24":0.07680226426521317,"25":-0.026669083122106946,"26":-0.07666291529356825,"27":0.013394110338205539,"28":0.02176667288538702,"29":-0.07726976265839507,"30":0.07090960939101698,"31":-0.021639883163994122,"32":-0.04201286720254743,"33":0.04501715433845866,"34":-0.016994798356859096,"35":0.10909577310215865,"36":0.010114066033193819,"37":-0.12068470447713014,"38":0.007057226037041395,"39":0.028784744451728954,"40":-0.05826970500963567,"41":-0.062386668107805854,"42":-0.053297108803089605,"43":-0.05575668054180058,"44":0.01095427479532523,"45":-0.05335057370022147,"46":-0.15906095344431778,"47":0.11273976653759436,"48":-0.01330507274308858,"49":0.02366313021207392,"50":-0.010388860134092778,"51":0.09567934060959338,"52":0.022360066717116864,"53":0.0506156983565145,"54":-0.08526828077140435,"55":0.05333996748895477,"56":0.009949042962478973,"57":0.06277371202926531,"58":0.04702993141624532,"59":-0.003111047425596769,"60":-0.05412834308558453,"61":-0.005831696480570963,"62":0.025168577951652175,"63":0.058820198779370274,"64":-0.0865545090624274,"65":-0.08326025911718378,"66":-0.01127622919525147,"67":0.009858854829027963,"68":-0.041869748737318184,"69":0.050361772684524506,"70":-0.05288278457039533,"71":0.029013436049777408,"72":-0.06446692268149665,"73":-0.05798063321320287,"74":-0.07763272459828827,"75":0.1539647668353712,"76":0.010276880751243495,"77":-0.028146935597642402,"78":-0.06408482152162774,"79":0.07812656875079171,"80":-0.0009657787307291081,"81":-0.02334206368576712,"82":0.03977641413217999,"83":0.0010616321861957004,"84":-0.12771823115535597,"85":0.010684850178735831,"86":-0.0732314503245005,"87":-0.015726477333565303,"88":-0.048517342310605865,"89":-0.0840500987291279,"90":-0.15515971913278334,"91":-0.024275166669693562,"92":-0.009778740347712804,"93":0.010859883579432945,"94":-0.0006967786167299754,"95":0.10684157092293992,"96":-0.00000475348334276979,"97":-0.07975945006479128,"98":-0.07124493896709203,"99":-0.10689034916697665,"100":-0.08709695319435208,"101":-0.026880667718042147,"102":0.07314751485441745,"103":-0.10239303324988082,"104":0.027495956431343834,"105":-0.06457086812634343,"106":-0.056266966601672595,"107":-0.06991118503117924,"108":0.08798894841758463,"109":-0.06540881959508077,"110":0.05508354907543763,"111":-0.02264822464330932,"112":-0.01228761835823674,"113":0.004633986076582463,"114":0.019360033959582162,"115":-0.020417198627110566,"116":-0.18609209886327144,"117":-0.038776012233061014,"118":0.045391933842032405,"119":-0.010567261053791506,"120":0.015880810741682738,"121":-0.024618353196869128,"122":-0.009188750764850267,"123":-0.04008472084578465,"124":-0.06818188260518557,"125":-0.09608928747520191,"126":-0.04685692897826734,"127":-0.11497343379073972,"128":-0.14074698027819793,"129":0.05289526110485694,"130":-0.027078001869119475,"131":-0.08959462126726876,"132":-0.1049660916762296,"133":0.027105568117356024,"134":-0.04346691943732951,"135":-0.05258095342158574,"136":0.10136850249161375,"137":-0.028126761029375634,"138":-0.03393643822039842,"139":-0.005951176222939655,"140":-0.03843724377815463,"141":-0.04705495558174761,"142":0.032970275383945466,"143":-0.04484950668289434,"144":0.06434222993374107,"145":0.08709142472500746,"146":-0.18994334274219307,"147":0.00625146475838412,"148":0.019634266630567537,"149":0.0035586099232023474,"150":0.037728577455075775,"151":-0.09730206062678265,"152":-0.03908526887496288,"153":0.0003955209193803866,"154":-0.07111655806287734,"155":-0.17739568230396488,"156":-0.12358696949180441,"157":0.08164758595754532,"158":-0.0554658331979945,"159":0.0019640816951099335,"160":0.05524217321156908,"161":0.07901482782724156,"162":-0.010049362724601758,"163":0.05426221386199755,"164":0.02663907080579014,"165":-0.015443556089675384,"166":-0.02008949240163571,"167":0.04505596058860329,"168":0.05049003597299848,"169":0.010172140418630758,"170":0.0688720603171362,"171":0.08047205581730364,"172":0.02869807214290157,"173":-0.03458025804567026,"174":0.0316807966553236,"175":-0.0036234560282550816,"176":0.02274225852867947,"177":-0.1068218856264762,"178":0.0526711172690387,"179":-0.048703612664540645,"180":-0.01105957416420933,"181":-0.0952294902226207,"182":0.08235076879996935,"183":0.05241390876910501,"184":0.07875701327463894,"185":-0.02021496993897411,"186":-0.002462230854004633,"187":0.05683108333383148,"188":0.028146800931730904,"189":0.018246075248021198,"190":-0.00558913984440895,"191":-0.08751722779808514,"192":-0.04581087354675506,"193":0.009875235629714776,"194":0.005404051774422037,"195":0.12207755487712417,"196":-0.04358915992900324,"197":-0.07142255116936122,"198":0.08997000741949673,"199":0.009810389559847667,"200":0.037691119712459795,"201":-0.043624282214436524,"202":0.028322207588004543,"203":-0.042310305944113315,"204":-0.07316927726565522,"205":-0.06256343095034017,"206":-0.05983454671728058}},{"sx":1,"sy":1,"depth":207,"w":{"0":0.2082027029092587,"1":1.2703278353812633,"2":0.2759102973954412,"3":0.1328477035418069,"4":1.6055239006227877,"5":0.13344845810994002,"6":0.10782524231502343,"7":1.3093753003305,"8":-0.06519361976252509,"9":-0.12252015588570601,"10":1.285691769933004,"11":0.013840455032669285,"12":-0.06655267258681818,"13":1.1916872312798912,"14":-0.026055207435673137,"15":-0.08125263220499786,"16":0.22118138387179517,"17":-0.06796511992463489,"18":-0.14558867550922247,"19":0.050611628830001754,"20":-0.06371412795575775,"21":-0.131531257395951,"22":0.14293354415736723,"23":-0.07568684916859575,"24":-0.1047943633950011,"25":0.030053719198998026,"26":-0.23025702861382616,"27":-0.0827840554448258,"28":-0.07802315555812761,"29":-0.11470428415118675,"30":-0.13639930987529697,"31":0.08830582549076602,"32":-0.08733505941690131,"33":-0.1776512551830785,"34":0.12019711950434565,"35":-0.043398748973782424,"36":0.02438541022090236,"37":0.05396617171047202,"38":-0.07000232823051183,"39":-0.05259995389883491,"40":0.048842331308914105,"41":-0.09307701856849304,"42":-0.06258731456715047,"43":0.012897367220580299,"44":-0.007276299133056165,"45":-0.06348555653784793,"46":0.05568482436454267,"47":0.02278280012673037,"48":0.0581037758236373,"49":0.10178856526659498,"50":0.08023281608489242,"51":-0.06616002412604696,"52":0.08290233014353185,"53":-0.08321714302515995,"54":-0.032788895520697636,"55":0.08886494875775212,"56":-0.12359327323569778,"57":-0.14215920978293325,"58":0.08975818871052385,"59":-0.10347336189327402,"60":-0.14795512559970286,"61":0.08247930136350945,"62":-0.16322658483708352,"63":-0.118596009057015,"64":0.057516294098954646,"65":-0.06667810817876856,"66":-0.12029855612934172,"67":0.007715978138903963,"68":-0.1281803984063587,"69":-0.04524285766159554,"70":0.06832758673084434,"71":0.02370674145484838,"72":-0.06501290571463664,"73":0.009722701645580553,"74":-0.006774788752257014,"75":-0.16746744070444114,"76":-0.03910207501652227,"77":0.04277389252068003,"78":-0.010376939123396408,"79":-0.0008162314755392207,"80":-0.052826095287835544,"81":-0.0591237918474673,"82":0.12049717373209579,"83":0.05770543780826315,"84":-0.03478314431947185,"85":0.04830174306407606,"86":-0.011878514981719483,"87":0.03510212108740693,"88":0.17994733018098708,"89":-0.036715777072958436,"90":-0.02706181155275235,"91":-0.036144847682819406,"92":-0.031288046482939876,"93":-0.03957885708222897,"94":0.05247646330318006,"95":0.046818665970853025,"96":-0.025273093375939762,"97":-0.029047725295750774,"98":-0.030597737024740286,"99":-0.02448458859625404,"100":-0.021665476636752647,"101":0.09558269461072867,"102":-0.1621386732428086,"103":-0.06604668730917534,"104":-0.020226709004356268,"105":0.08901395355626847,"106":-0.015075731781496838,"107":-0.017759566993595682,"108":-0.016224542679914775,"109":-0.0011092586622457328,"110":-0.13134692935359793,"111":-0.1512005567098062,"112":-0.01491893895577404,"113":-0.04525758756722827,"114":-0.04572418647825869,"115":-0.12862597207526252,"116":-0.007813284938763316,"117":0.06288503409466134,"118":-0.014828816448632792,"119":-0.07764444219679134,"120":0.06226461793551967,"121":-0.07314492348863494,"122":0.013450100128898907,"123":-0.10684157186607593,"124":-0.035384888553454,"125":-0.012505949241020994,"126":0.0015658548231430112,"127":0.12075126742400571,"128":0.0054512420225428975,"129":-0.001364085459171701,"130":0.028345817847138306,"131":-0.05457971500458602,"132":0.1542038544728998,"133":-0.011001382821816445,"134":0.00633741316407467,"135":0.08708420639522133,"136":-0.023380831259039198,"137":0.03535438497510709,"138":-0.016954584547499468,"139":0.04294502738975636,"140":0.02874325022662409,"141":0.08138271437348851,"142":0.007485161105296468,"143":-0.03671854744179172,"144":0.18441126687613996,"145":0.04843232367758486,"146":0.04866446374352776,"147":0.0831191522743514,"148":0.005605655081735604,"149":0.008653416554856849,"150":0.010555261349849679,"151":0.019057740172218892,"152":0.02095602588552378,"153":0.0038986466909320793,"154":-0.016532595756553203,"155":-0.0342522156741673,"156":0.05987575144780314,"157":-0.09146324265685352,"158":0.07867554393166541,"159":0.0009154669808212633,"160":0.01954128593275569,"161":0.024137070210781812,"162":-0.048330021779578874,"163":-0.022681819117006893,"164":0.13758189697885376,"165":0.009850590745155385,"166":-0.052930974790078356,"167":-0.12226240394374174,"168":0.0759556737487756,"169":0.01827604404718279,"170":0.0850527261587167,"171":-0.023474044223987658,"172":-0.013725445086958936,"173":-0.045154525945330384,"174":-0.017870080864179124,"175":0.04721116868174146,"176":0.09809364668399412,"177":0.015287450926878964,"178":0.006950108664821803,"179":-0.03840112123224022,"180":0.0448840919282375,"181":-0.023657960242891105,"182":0.015406926950904802,"183":-0.05145213104297503,"184":0.0648750638080134,"185":0.018025821204115285,"186":-0.04499238792912216,"187":-0.06008501104968353,"188":0.10799579498374944,"189":0.0941293541570548,"190":0.046777047818390594,"191":-0.11352229758595057,"192":0.05131886634608399,"193":-0.032896908054858204,"194":-0.11340734980190591,"195":0.08019659754670438,"196":0.08234576152691868,"197":0.03411293092583884,"198":-0.07428794475476247,"199":0.03722394227296434,"200":-0.04885326837759278,"201":0.04040864602057778,"202":-0.03526595352484094,"203":-0.03645577138097174,"204":-0.034719973455898744,"205":-0.02539957084501553,"206":-0.04797105023877643}},{"sx":1,"sy":1,"depth":207,"w":{"0":0.036543179809078105,"1":0.21639370399933894,"2":0.1962430837929242,"3":0.15288807214788175,"4":0.10479493491408534,"5":0.09580813733316937,"6":0.10859280843831769,"7":0.12974986158004348,"8":0.0834106951289214,"9":0.1831591643069115,"10":0.1100211170913482,"11":0.16269114759669795,"12":0.1384278210708235,"13":0.11171299700742834,"14":0.1759487201704846,"15":0.17803575164406998,"16":0.08603524524900157,"17":0.2397507170487061,"18":0.09588089335376954,"19":0.07586149251848055,"20":0.2137659421317449,"21":0.00008060074903277163,"22":0.02309066412630868,"23":0.04106517503444047,"24":0.10584928566128719,"25":0.06754880666595575,"26":0.10810604942255396,"27":0.06809155920541687,"28":0.02244988650146259,"29":0.21557260822297644,"30":0.04479225644599391,"31":0.09382254727500446,"32":0.16501975769099642,"33":0.1080098352307495,"34":0.037106879269746026,"35":0.09550097788908657,"36":0.04268755911675986,"37":-0.07225014714818541,"38":0.04439125674647081,"39":0.09049681533023697,"40":0.009111631384566105,"41":-0.010102522808445473,"42":-0.0414777572015377,"43":-0.015815971203492738,"44":-0.053838281668737956,"45":-0.04261170511465609,"46":-0.021996085787672554,"47":-0.1999291687329332,"48":0.05710105911945782,"49":-0.02516714566476297,"50":-0.03912890383205317,"51":0.010506335880763863,"52":-0.06837122142575404,"53":-0.03573040527708969,"54":0.08828504276440047,"55":0.066338403681788,"56":0.09082302183654256,"57":-0.05815448889038436,"58":-0.11575749949414574,"59":0.1084850454581685,"60":0.014357582126438909,"61":-0.006814045817717254,"62":0.19984113450047092,"63":0.1534035573612436,"64":-0.024406702256734095,"65":-0.02983094122293661,"66":0.03736855591603457,"67":0.0360726758664807,"68":0.02700983128485241,"69":-0.017381974451274818,"70":0.062077466149973615,"71":0.1629586900377274,"72":0.07748809644644485,"73":-0.019904902489000936,"74":0.12795918079322538,"75":0.14064047966811108,"76":0.046393593204255755,"77":0.07005812374490536,"78":0.04980248034900843,"79":0.06441676747053615,"80":0.18589411875803147,"81":0.1367715340099769,"82":-0.007296779329878884,"83":-0.007004476554449833,"84":0.11199396422983772,"85":0.009825815447599197,"86":0.09372249332335288,"87":0.03134052444056875,"88":0.012921033516748384,"89":0.020892349244017193,"90":0.009751457834032877,"91":0.0037557887517353232,"92":0.060552503105908186,"93":-0.009923940177441226,"94":0.09365483694137283,"95":0.006488477382083041,"96":0.0467146748865011,"97":0.0319672609158756,"98":0.05718933280917311,"99":0.04490352892872756,"100":0.021103752476819615,"101":-0.055849839771820724,"102":0.09329888323025046,"103":0.06844133551951212,"104":-0.09270265705815771,"105":-0.024300731644853725,"106":0.03115091631536718,"107":-0.003746387407058917,"108":0.0490701302712318,"109":-0.09509394650066567,"110":0.016244153882997332,"111":-0.04034081823827757,"112":0.08368970615390874,"113":0.017268933630644627,"114":-0.17990303684770828,"115":0.03884148363219088,"116":0.08477278336935187,"117":0.07849293899161006,"118":0.11260312086857142,"119":-0.06768752950787908,"120":-0.0355789340547815,"121":0.03630890494583535,"122":0.05780525124991809,"123":0.002989971211866115,"124":0.06099509305064029,"125":0.02284353622191915,"126":-0.041749507989589936,"127":-0.05520359653409578,"128":0.022336701038892195,"129":0.06571180598673367,"130":0.10725956692586273,"131":0.011296237075018438,"132":0.14155578175782763,"133":-0.13046035991595673,"134":-0.05982672553056265,"135":-0.007872759039172504,"136":0.07112828057484052,"137":-0.034834992980936244,"138":0.045009585367066854,"139":0.05238280718961133,"140":0.0843663213387486,"141":-0.08439308419170478,"142":-0.03198341821377955,"143":-0.12300166280664952,"144":0.056791486667840056,"145":-0.08300506935422675,"146":-0.11264780974280884,"147":0.00033222285220877037,"148":-0.06454338706487112,"149":-0.03080883750926263,"150":-0.01935761232221227,"151":-0.012004407793733312,"152":-0.03095299478699714,"153":-0.047292534830718574,"154":0.12335172852502392,"155":0.00005495043195659642,"156":0.1539498913477512,"157":0.07697195940110797,"158":-0.11585394902907968,"159":0.07954021947200852,"160":-0.06130822211954461,"161":-0.04343929752906209,"162":0.03878981581382912,"163":0.059761413785633447,"164":-0.05252867512270543,"165":0.07603456171423056,"166":0.024425741868865716,"167":-0.08417047968348297,"168":-0.11259290197801068,"169":0.04396969266387083,"170":0.010732495789991579,"171":0.1337988504586563,"172":-0.013039176865120086,"173":0.023157034761433805,"174":0.027493763264300114,"175":0.08354297746521104,"176":0.0926291100480612,"177":-0.04923946176600329,"178":0.0003159891694470392,"179":0.025728171182900703,"180":0.11643481052367861,"181":0.022745682451495507,"182":-0.033892829925812495,"183":0.005972487140140521,"184":0.024170838856515792,"185":0.009598854423081385,"186":-0.056937169855156906,"187":0.12485323959235838,"188":-0.04021085758620855,"189":0.02849125099697108,"190":-0.0395060311573588,"191":-0.0029590757148337003,"192":0.05337987181673851,"193":0.006042804374090607,"194":0.0018137126030213233,"195":-0.05490098462459246,"196":0.004864461780815808,"197":0.07890192319896716,"198":-0.008989586069902668,"199":-0.00933498631672458,"200":-0.00041648495556887745,"201":0.04950291201577172,"202":0.006515678334597239,"203":0.013530626998604809,"204":-0.03711651525383103,"205":-0.009330454174521944,"206":-0.012067879532461395}},{"sx":1,"sy":1,"depth":207,"w":{"0":-0.053152931681159726,"1":-0.027209344668751335,"2":0.032789590986672244,"3":0.10929708366747917,"4":-0.062366538309042256,"5":0.06720039999874262,"6":0.07418468392512445,"7":-0.06652797531442484,"8":0.10323947463295333,"9":0.11751761065501734,"10":0.1105519677944465,"11":0.0616328446171901,"12":0.02876071604192118,"13":-0.09366299673137721,"14":0.13558541297826399,"15":-0.06765666181107942,"16":0.10083607580117432,"17":0.06510088093377649,"18":-0.1615399450524886,"19":-0.02155434986426238,"20":-0.06423738025334762,"21":0.014386833665164286,"22":-0.025450799246374167,"23":-0.06768287931886367,"24":-0.08370130210979722,"25":0.08463086644768113,"26":0.11324890560203592,"27":0.003077459217263794,"28":-0.02975732667830211,"29":-0.11749044526463595,"30":-0.053986609001648304,"31":0.060297448781875825,"32":-0.033923759487295,"33":-0.03005786192799042,"34":-0.0261966525705478,"35":-0.05611427040444931,"36":-0.023049668747650912,"37":-0.0059862875964383925,"38":-0.06156907579603217,"39":0.04623044432941445,"40":0.014614521658349618,"41":-0.08297697795818551,"42":-0.04765904377175196,"43":0.012834574336679012,"44":-0.0913127784214099,"45":-0.06659381911876416,"46":-0.12439665901138629,"47":0.01348603746336042,"48":0.025781307317706018,"49":-0.15350826328809242,"50":0.16022887547143358,"51":-0.14088758198349463,"52":-0.07759314611253015,"53":0.06729579193162012,"54":-0.10242043386414283,"55":-0.07643678150761189,"56":0.1166703176439689,"57":0.09349028894341001,"58":0.05392175535595049,"59":-0.06800166877195943,"60":-0.12875534427943908,"61":0.018858294891114347,"62":-0.01110732399078289,"63":-0.030171511766242033,"64":0.004679779156611341,"65":0.09221725926869286,"66":0.08038221288310676,"67":0.05313129273654502,"68":0.0009209639762959045,"69":0.07006369336632996,"70":0.07175554050526561,"71":0.17918837084805622,"72":0.018844729375313347,"73":-0.03559887985157794,"74":-0.06341161580310149,"75":-0.1039231234195058,"76":0.07974249575370373,"77":0.009102409285623062,"78":-0.10812564551936225,"79":0.045925074623625106,"80":-0.08983767403322798,"81":-0.017039018229091412,"82":0.04206069418948808,"83":-0.06094215260694995,"84":-0.08427175868817356,"85":0.06526805751142793,"86":0.06531656985748487,"87":0.05942698176250425,"88":-0.05905794013859763,"89":0.0059274438699159215,"90":-0.0488718535038805,"91":0.031631072123726685,"92":-0.06802730697467474,"93":0.07815302007662275,"94":-0.1714977452898726,"95":-0.0074927025560552205,"96":-0.050424780177536106,"97":-0.025527703091617854,"98":-0.0849856797800688,"99":-0.09566219272083949,"100":-0.06314514174770691,"101":-0.013067593273778122,"102":0.011672394745273436,"103":-0.15715933424521886,"104":-0.03892978409656553,"105":0.08708746795287811,"106":0.06349945816050459,"107":-0.04159922966882133,"108":-0.0037456073906728545,"109":0.07867361895392484,"110":0.01619327462818273,"111":0.03477595413923316,"112":-0.020060824429779366,"113":0.03555921901304234,"114":-0.05337390044352025,"115":-0.04624624678230678,"116":-0.09720067725939364,"117":0.01539402210295266,"118":0.14523677627418558,"119":-0.1041130647120736,"120":0.07359785997311004,"121":0.016382232289676328,"122":-0.05784950917791677,"123":-0.13115304762825444,"124":-0.05102515442555201,"125":-0.0034331729435384366,"126":0.031202455169089493,"127":-0.034627692678864175,"128":-0.01692187767547443,"129":0.1821091134294368,"130":-0.05324324763364382,"131":-0.05693142989716161,"132":-0.07811074726316966,"133":0.021731015944563694,"134":0.011894321452786445,"135":0.019935093697481136,"136":-0.036115703859090575,"137":-0.04050797509721259,"138":-0.1067596563346048,"139":0.01032283909570541,"140":0.008766529365687305,"141":-0.07748982080677033,"142":-0.10971983414408594,"143":-0.06454997911634232,"144":-0.045135004125700616,"145":-0.08679929276736831,"146":0.02068679170158173,"147":-0.08360165570839245,"148":0.016893615583190278,"149":-0.017425706324246847,"150":0.053594877364658525,"151":0.013042385240220227,"152":-0.050184573964069515,"153":0.01224396406351606,"154":-0.021102972766592433,"155":0.005257227735822178,"156":0.04254887778953085,"157":0.001199886042955656,"158":-0.005580324346688633,"159":-0.01946222722943502,"160":0.005089645268330363,"161":-0.04083900494035177,"162":-0.037865600589163204,"163":-0.04114970954329049,"164":0.008491653632238453,"165":0.023711689854507605,"166":0.08696874302237961,"167":-0.04813280925441995,"168":-0.030518216947466946,"169":0.02883250620196431,"170":-0.017932429183486556,"171":0.0032888680230031136,"172":0.0648874611865136,"173":0.017110643822042557,"174":-0.009966874026968607,"175":0.03458206015919343,"176":-0.07843570658067615,"177":0.04978879377446187,"178":-0.011213578221352553,"179":-0.023836678925515623,"180":0.0030367889423219604,"181":0.0065168489880776895,"182":-0.08272585638634361,"183":-0.019063596484063167,"184":-0.038136506820012926,"185":0.03936599134278172,"186":-0.08708677207293096,"187":-0.02782970166369984,"188":0.03923814969199351,"189":0.021315950916953933,"190":-0.09097132010304215,"191":0.07710465687720602,"192":0.07807758017647756,"193":-0.0708116313499825,"194":0.12493621085931729,"195":0.144316073337581,"196":0.04290095309781267,"197":-0.09361004780281111,"198":0.015018441822089139,"199":-0.03222009167025501,"200":0.017729605615859435,"201":0.053680371087651564,"202":-0.045354261486182754,"203":-0.06857315111145555,"204":-0.09102389770676877,"205":-0.060105011545386486,"206":-0.02740884194990575}},{"sx":1,"sy":1,"depth":207,"w":{"0":0.07595255983432306,"1":0.053793908564292156,"2":0.06245866960377512,"3":-0.18684683422822115,"4":-0.1038808778339362,"5":-0.002518310825894047,"6":-0.1513346885905082,"7":0.030550247554873643,"8":0.05607252062197975,"9":-0.14476759789569943,"10":-0.0013704176019402278,"11":0.09802745167713076,"12":-0.21390312499992545,"13":-0.052708951459256345,"14":0.06330735618448974,"15":-0.14772249632109646,"16":0.12103853047773343,"17":-0.012430233857986861,"18":-0.25740378902213057,"19":0.05251061770557353,"20":0.02757768516822897,"21":-0.17514818958192624,"22":-0.003366637842244493,"23":0.09722661850468702,"24":-0.2679420157242503,"25":-0.01925540264559375,"26":0.09678572533351712,"27":-0.09125041115163261,"28":0.007499454700837389,"29":-0.012764857143763042,"30":-0.11972139422320964,"31":0.0028203564769046147,"32":0.05792899709101931,"33":-0.1523487238689435,"34":0.053873258931195135,"35":0.09102838929727972,"36":0.049347646273689594,"37":-0.08257567087256192,"38":0.08347455283209082,"39":0.029253911409076905,"40":0.01136431738235814,"41":0.11440757889117381,"42":0.1986342483750185,"43":-0.012884472685218739,"44":-0.031184642252430405,"45":0.1360072296315342,"46":-0.1490643428157189,"47":-0.15738466357575284,"48":-0.10453637369085884,"49":0.11433929630359842,"50":-0.039553892488261626,"51":-0.05621837436393146,"52":-0.06663381384643556,"53":0.05684961149223763,"54":0.001190368623031233,"55":-0.0050690121308537475,"56":0.16540073088335502,"57":-0.07948421495797917,"58":-0.16113946653820793,"59":0.029197382839190284,"60":0.017357559063770792,"61":-0.027687994152242323,"62":0.060503197296829646,"63":-0.11074432116227254,"64":0.045688104207168456,"65":0.02723486410174921,"66":-0.05565668782584095,"67":0.10743824874690418,"68":0.039547250930458466,"69":-0.0989301987982049,"70":0.014747341423253913,"71":0.13317484187720133,"72":-0.07202790301869792,"73":-0.05872436064158868,"74":0.02853134898644154,"75":-0.04656764884142603,"76":0.05185045258348109,"77":-0.04368439626129184,"78":-0.06569787268051636,"79":0.06924582452132584,"80":0.028648209063046468,"81":-0.02504019080257334,"82":0.026484306077819278,"83":0.04869416577870105,"84":0.11573358631408058,"85":0.121204470326259,"86":0.0059453181587241135,"87":-0.07910907832503596,"88":0.0452751822658594,"89":-0.04090041178077968,"90":-0.06634979301594214,"91":0.04487890348419777,"92":0.09627738403190488,"93":0.0968764854533358,"94":-0.06874881611117808,"95":-0.0714747800079476,"96":0.05021523608628198,"97":0.06029252400042212,"98":0.057468686944784596,"99":0.06659307051399663,"100":0.055514489740577246,"101":0.030434340798101325,"102":-0.012378846059029598,"103":0.09195670573517045,"104":-0.00797929204648104,"105":0.0006213713521540831,"106":0.04543258612866934,"107":-0.032382494725745795,"108":-0.05361996636889029,"109":-0.07984262021663238,"110":0.0028501340875435113,"111":-0.017696373107120432,"112":0.017002988441712823,"113":-0.05986468411785347,"114":-0.12276198723868155,"115":-0.0525646723333356,"116":0.017009606098687582,"117":-0.007054424258981999,"118":0.04395012074066996,"119":-0.07027853275368139,"120":-0.004901649718955827,"121":0.01988377801470418,"122":-0.1247365324868284,"123":0.04310414534756664,"124":0.08298661455410118,"125":0.031625233904906555,"126":-0.023805223417373268,"127":-0.004042189446032615,"128":-0.10298800464667937,"129":-0.08714049818595122,"130":0.04778753006984057,"131":-0.0337237149403113,"132":0.04593380329485049,"133":0.008481730976653985,"134":0.027191725540188387,"135":0.07767262492021909,"136":-0.13476742457225596,"137":-0.14053362482865783,"138":-0.07954448590776593,"139":0.14377857214355927,"140":-0.003436340457230389,"141":0.052669632491964415,"142":0.05257660518224265,"143":-0.010657704765049934,"144":-0.00344626428067477,"145":-0.0615745474439111,"146":0.1157924385491144,"147":-0.01855824017440917,"148":-0.01344538673224407,"149":0.08570112678982153,"150":0.06919082414828147,"151":0.06119597759215687,"152":0.07053716802130663,"153":0.0723744058552788,"154":0.037526011867828786,"155":0.05201071137454796,"156":0.052712901514612366,"157":0.09071928779180533,"158":-0.04064675562826826,"159":0.02012677204477335,"160":0.0720044207548865,"161":-0.17195746396510794,"162":0.027962457119259678,"163":0.10704585196558801,"164":-0.1241493278484291,"165":0.18781918553177832,"166":0.11394702165649968,"167":0.021697132616821727,"168":-0.023877358840495046,"169":-0.018616604401109096,"170":-0.03770446320762531,"171":0.04654157070609735,"172":0.053616801362140136,"173":0.07797303408347861,"174":-0.09381713099976417,"175":0.06786077336088621,"176":0.08224665839020003,"177":-0.09492843374736486,"178":-0.09795813873243814,"179":0.03621512249727719,"180":0.018641814957961897,"181":-0.1383332712260177,"182":-0.04734278166014426,"183":-0.02353102032995689,"184":-0.04288297209624435,"185":0.11912386806872521,"186":0.08088240414794226,"187":-0.009512152324272195,"188":0.008116058604430544,"189":0.0728064175051051,"190":-0.024089116966690836,"191":-0.13423374714399078,"192":0.12569728949132145,"193":-0.0850690773078016,"194":-0.04448208299752335,"195":-0.07046487624844448,"196":-0.041569484902836865,"197":-0.06263806529515363,"198":-0.0242353186599959,"199":-0.04126130470849302,"200":-0.09694839183471686,"201":0.002600812563443164,"202":0.09939798413530981,"203":0.07758192522922674,"204":0.09870416877532562,"205":0.08269124997913277,"206":0.09979560005761212}},{"sx":1,"sy":1,"depth":207,"w":{"0":-0.1217761910185221,"1":0.02185740217277269,"2":0.13722443063790285,"3":-0.07305831103432062,"4":0.055617779806279105,"5":-0.06562141209217331,"6":-0.09449170664754607,"7":-0.06220860320689174,"8":0.003771159657256275,"9":0.008676726947064627,"10":0.013995184097611755,"11":0.0686516032214833,"12":-0.02768972056338139,"13":-0.18435460707066242,"14":-0.18816888109959345,"15":-0.004057049465082594,"16":0.06762390650328617,"17":0.06142641546160513,"18":0.03283219957669373,"19":-0.0010992604864649004,"20":0.008587406159641897,"21":0.037774740969739776,"22":-0.06862625148848381,"23":0.03529686893711999,"24":0.08593227821816868,"25":0.054493229486643695,"26":-0.02823166583926261,"27":-0.05062096887748613,"28":-0.120605390123187,"29":-0.01529597310798124,"30":-0.07229648796341118,"31":0.033709293006793054,"32":-0.024259057072922613,"33":-0.08312983999240509,"34":0.002681987651741899,"35":0.12481702250070638,"36":-0.13158601679935675,"37":-0.08974033091904753,"38":0.006577853573677231,"39":-0.09521392617234216,"40":0.06828807718967742,"41":0.041063002738375626,"42":-0.04684853686065735,"43":-0.010702260409778964,"44":-0.0573920412406193,"45":-0.029425998388882615,"46":-0.10489799961737173,"47":-0.11582557185999277,"48":0.007532034640787709,"49":0.024662571225332688,"50":0.03516318302220742,"51":0.0006782354810369708,"52":0.13658483422259438,"53":-0.026321540034179275,"54":0.04884998147652893,"55":-0.10834018286865536,"56":-0.054527633573058974,"57":0.08418416841685016,"58":-0.03214781068585308,"59":-0.0627730782531406,"60":0.0013907025883632797,"61":-0.02761997843248198,"62":-0.03406657610531944,"63":-0.011680168089271237,"64":0.07887533361775612,"65":0.018823214332838307,"66":-0.034392917923566864,"67":-0.019335460733784067,"68":-0.141904598291012,"69":0.09229746579568372,"70":-0.05580648401288421,"71":0.12525751873884672,"72":0.05142929973620209,"73":0.06984584838565179,"74":0.049430057673906555,"75":-0.10893654018758082,"76":0.03520401227262977,"77":0.1424538476669093,"78":0.0662358203775121,"79":0.02147780606605169,"80":0.10785840200525441,"81":-0.06549052844495785,"82":0.02007946175062386,"83":-0.021800102273141737,"84":0.07147693381679301,"85":0.004354320909583832,"86":-0.0601378901562456,"87":0.061271692708183875,"88":0.016989168502000763,"89":-0.026888197584130327,"90":-0.09887596005320837,"91":0.02633425437742692,"92":0.04956111401452442,"93":-0.05821974931240085,"94":-0.004841397236955361,"95":-0.056914169617345856,"96":-0.04265992397590723,"97":-0.06185168063835418,"98":-0.0813183954038101,"99":-0.09001620502858902,"100":-0.10468511393628048,"101":-0.038814193397811954,"102":-0.037458198038664514,"103":-0.06466414389059238,"104":-0.016910977441837224,"105":-0.017215838196072454,"106":-0.04232516017408453,"107":-0.021977321412964025,"108":0.029837699362917768,"109":-0.05166515976346981,"110":0.06373688790726686,"111":0.03162473810698703,"112":0.07435732026030484,"113":0.07066171240722396,"114":0.007928448950472185,"115":-0.11226688931040137,"116":0.012030118797275939,"117":0.03796832416143237,"118":-0.06976828412434749,"119":-0.017039084630852307,"120":0.016092050478668376,"121":-0.04228099247414356,"122":-0.06163648332727411,"123":0.06258809904897009,"124":0.019155321462612285,"125":-0.013265041574075325,"126":-0.03575607911370499,"127":0.03294860323730434,"128":-0.06462113959698794,"129":0.005873649641501777,"130":0.07360921598903218,"131":-0.027398047152699345,"132":0.00272844586265366,"133":0.0571013868410877,"134":-0.06848308991386488,"135":-0.12166823366465085,"136":-0.100168513640651,"137":-0.050766346748895304,"138":-0.07647376397871564,"139":0.06638120797134302,"140":-0.0893153419872514,"141":-0.006254347076208699,"142":0.036963591563651546,"143":0.08888558167769862,"144":-0.03363540273503494,"145":0.13658069961068392,"146":-0.02818285968197616,"147":0.034852034575979074,"148":-0.02340177389256605,"149":-0.02135356213589585,"150":-0.000026340355700151074,"151":0.02122445309889466,"152":-0.06138720717010947,"153":-0.09182504000991856,"154":-0.0011515219494543229,"155":0.06546831755240706,"156":-0.07298111415819782,"157":0.06699503018665359,"158":-0.21531723630342997,"159":-0.027467357921174978,"160":0.017254479079468817,"161":-0.1260141042306799,"162":0.020761923391838424,"163":-0.021777443787258124,"164":0.09521047476114576,"165":-0.04126511850456728,"166":0.08856948879710633,"167":0.09420679410859181,"168":0.0793471375601118,"169":-0.04856424194447318,"170":-0.08830640877798707,"171":-0.01575587373255107,"172":0.013492277128902355,"173":-0.08689017297619298,"174":-0.04332631789803104,"175":0.05359257809280392,"176":0.06661446087838505,"177":0.15295197655813642,"178":-0.03832703684465121,"179":0.01660608918624564,"180":0.11004652854574408,"181":0.003529702751925209,"182":-0.041665084589070166,"183":-0.019634126898001106,"184":-0.032440850200918275,"185":0.04069171909179276,"186":0.02281860555663634,"187":0.10114413377924014,"188":0.04904787152810576,"189":0.04146128363712237,"190":-0.021713987691315884,"191":0.08469297909880497,"192":-0.09837316811333156,"193":-0.006922261942002039,"194":-0.04926943528284229,"195":0.011858009259896616,"196":0.12616803334729412,"197":-0.04258935540879368,"198":0.021824225945787392,"199":0.045204820910127966,"200":0.032563924611980107,"201":-0.028848603324446477,"202":-0.04596243635750759,"203":-0.03227399321545608,"204":0.012094797645617666,"205":-0.07613285388137944,"206":-0.045312400393551076}},{"sx":1,"sy":1,"depth":207,"w":{"0":0.19060946178253155,"1":0.6327436936752702,"2":0.5430003201626227,"3":-0.09413764667492724,"4":0.7089410960354529,"5":0.48925773545057183,"6":0.10389376989755447,"7":0.6936888381116688,"8":0.4603042896382611,"9":0.06343116865920871,"10":0.5636706140528569,"11":0.441608566914688,"12":-0.008489164317590683,"13":0.6368342741575685,"14":0.6340477607710443,"15":0.18881498261843144,"16":-0.016403553156059826,"17":0.6679852934422212,"18":0.10461324266457162,"19":0.1349628635922062,"20":0.5558953654088656,"21":0.06500200432330627,"22":0.09585739282719494,"23":0.5978721375135743,"24":-0.054604113852387115,"25":-0.03757486106125473,"26":0.478265337705746,"27":-0.03594509912666146,"28":0.0369300054330036,"29":0.4018165563973065,"30":-0.09077439000691125,"31":0.015959727819151857,"32":0.3264532674582804,"33":-0.10644544438462603,"34":-0.06618229284155701,"35":0.44354328226980994,"36":-0.11189718387800672,"37":0.009917724778705094,"38":0.18361663467720157,"39":-0.10540008495256539,"40":0.018864709464760005,"41":-0.049582811721644277,"42":-0.030738207725014954,"43":0.03834127013965971,"44":-0.21755181166115178,"45":-0.12239442179582728,"46":0.1806932170457859,"47":-0.23484739182030206,"48":0.07138773694132042,"49":0.06597337245822779,"50":0.28964550735942884,"51":-0.0010541016837313944,"52":0.066449599603348,"53":0.24783761357576828,"54":0.017588961799948816,"55":0.023470061373695558,"56":0.28303297698345903,"57":-0.03323241275242709,"58":0.08029735047500716,"59":0.37778748519635663,"60":0.029762612382058577,"61":0.053132192712842786,"62":0.3620738798032318,"63":0.07320535578052302,"64":-0.08977924283805838,"65":0.3755750148555324,"66":-0.0527165531183206,"67":-0.022071105478806093,"68":0.4569787831019853,"69":-0.10611460920307277,"70":0.08007290108255641,"71":0.3767680304860932,"72":-0.0642914963159321,"73":0.00437858881302937,"74":0.27584955201400346,"75":0.0060523897875395935,"76":0.01523338999253639,"77":0.37966124164759624,"78":-0.1015313233029115,"79":0.012620006350624543,"80":0.2712287372760369,"81":-0.09067421052812756,"82":-0.03233313990563928,"83":0.19105306487325377,"84":-0.19410240630462613,"85":0.06494324905992702,"86":0.026386667365226955,"87":0.006783694623961496,"88":-0.11827468195053442,"89":0.13619072856968406,"90":0.022318213922349103,"91":0.032102963945409124,"92":0.028067943622916914,"93":-0.14860546626817311,"94":0.16092089554876515,"95":-0.026178076202344313,"96":-0.08721493610745654,"97":-0.0676473482944171,"98":-0.08053899950309822,"99":-0.08118958418722799,"100":-0.06789331245475053,"101":0.01350386565730462,"102":-0.0698467261307713,"103":0.13480395223770564,"104":0.0626835192331011,"105":0.07492236706221517,"106":-0.17017868799145128,"107":-0.024053620418458294,"108":0.0825995622166363,"109":0.06491026449530947,"110":-0.15661637095795164,"111":0.008504704863106618,"112":0.16378994685115014,"113":0.07634570580594878,"114":0.023149993590360584,"115":0.10735596490150624,"116":0.058045525295991864,"117":0.09458282635612945,"118":0.18045339655678608,"119":0.1316863081190367,"120":-0.1315795893826295,"121":0.2834057730066263,"122":-0.03339798728558568,"123":0.05067645860377515,"124":0.1711596814334195,"125":-0.1172607233221691,"126":-0.05024828916874519,"127":0.12724820937596182,"128":0.10344875720096136,"129":-0.016502257128090107,"130":0.13907610642985005,"131":-0.16224615092074052,"132":0.11765535518644334,"133":0.19638805489469974,"134":-0.012550175259414069,"135":0.041238166999613114,"136":0.05191096397001404,"137":0.009477731183484174,"138":0.00479103492584098,"139":0.11919867453028969,"140":0.0400140950893187,"141":0.06950106984798864,"142":0.12093945408447995,"143":-0.01135753728708,"144":-0.05248775706475308,"145":0.02873132389442605,"146":-0.0686941259233138,"147":0.2062029281784626,"148":0.04145341111989825,"149":-0.0671635133707753,"150":-0.059591357804627994,"151":-0.06360720659157705,"152":-0.05551845324554448,"153":-0.042888010670045135,"154":-0.12551134189630525,"155":0.020330975762395932,"156":-0.09341133436544564,"157":-0.041317754712210546,"158":0.09439259514516701,"159":-0.10230286676723707,"160":-0.043009977255566025,"161":-0.06430953282723689,"162":0.06935469780619807,"163":-0.11823022136379434,"164":-0.008211772601953238,"165":0.032990371163108004,"166":-0.0611672817445695,"167":0.019020289556868502,"168":0.08555753960266477,"169":-0.048349462157265696,"170":-0.08919483815674556,"171":0.020556369758133495,"172":0.05128330064980161,"173":0.07461629566602913,"174":0.08786569039218818,"175":0.018182485314394526,"176":-0.17312050369970944,"177":0.11055101838786617,"178":0.01339150307525334,"179":-0.07231745442444858,"180":-0.0354817753204984,"181":0.015827941452566635,"182":0.09224773697948396,"183":0.09959191437354087,"184":0.08225756738557531,"185":0.12332591091208597,"186":0.05971696570918371,"187":-0.004687022693225043,"188":0.01858385517930883,"189":0.18535285667142462,"190":0.017355154638840714,"191":0.023141018205718053,"192":-0.04513333384085721,"193":0.0023318103274523397,"194":0.0077056258973010805,"195":0.11827159391305282,"196":0.019123122196642087,"197":0.1416011417481201,"198":0.03660271781077341,"199":-0.08430791264968644,"200":0.13149210217391585,"201":0.06562997435137494,"202":-0.05708073067145299,"203":-0.04829267153210158,"204":-0.05677433821602246,"205":-0.043035184114699115,"206":-0.0431943432077395}}],"biases":{"sx":1,"sy":1,"depth":10,"w":{"0":0.09556494051100914,"1":0.10036345754052271,"2":0.09598086154636777,"3":0.0953127838656117,"4":0.09987949181237263,"5":0.09952182433980816,"6":0.09586589742462805,"7":0.10707010024302939,"8":0.09567150562642081,"9":0.0934826210221671}}},{"out_depth":10,"out_sx":1,"out_sy":1,"layer_type":"relu"},{"out_depth":10,"out_sx":1,"out_sy":1,"layer_type":"fc","num_inputs":10,"l1_decay_mul":0,"l2_decay_mul":1,"filters":[{"sx":1,"sy":1,"depth":10,"w":{"0":0.8219579594316636,"1":0.34996032591624615,"2":0.30492686017788057,"3":0.20264301561268178,"4":0.570435322434458,"5":0.1287116836960644,"6":-0.03946553986381743,"7":-0.36722563213861714,"8":-0.08918193360312492,"9":-0.1110455323785293}},{"sx":1,"sy":1,"depth":10,"w":{"0":0.11612443206756326,"1":-0.5065732814067309,"2":0.6598295405786064,"3":0.12020093868021828,"4":-0.4527993967775921,"5":0.6127832997938691,"6":0.25827086153112155,"7":-0.46210277918581194,"8":-0.28940063831968427,"9":-0.08691979775289653}},{"sx":1,"sy":1,"depth":10,"w":{"0":-0.46919817624885074,"1":-0.46984813612100523,"2":0.38637017986487987,"3":0.08856365630882551,"4":-0.18166665617033345,"5":0.15434064526163038,"6":-0.6390177055448226,"7":0.20787395279514947,"8":-0.2771944524737651,"9":0.45945408231511814}},{"sx":1,"sy":1,"depth":10,"w":{"0":0.5537312475339232,"1":0.2906703959682819,"2":-0.3418574746645198,"3":0.10136706487260425,"4":0.3019447037783403,"5":0.03320596290042925,"6":-0.078913174257265,"7":-0.5428536676172174,"8":0.3111448178726681,"9":0.5141544034557517}},{"sx":1,"sy":1,"depth":10,"w":{"0":0.16354995785406154,"1":0.1123504126887452,"2":-0.06725749431045609,"3":-0.2080132765387626,"4":0.1435636590811828,"5":-0.06305149766973796,"6":0.4916088395344729,"7":-0.1558382218050903,"8":0.1522194855229676,"9":-0.01734320173726179}},{"sx":1,"sy":1,"depth":10,"w":{"0":0.16581794286880291,"1":0.33706689898656544,"2":0.37657953846437686,"3":-0.24337629408948666,"4":-0.15904704249474128,"5":0.18240355751400353,"6":0.07434798606794123,"7":-0.34405349239059635,"8":-0.21857363909010502,"9":-0.6816523351279675}},{"sx":1,"sy":1,"depth":10,"w":{"0":0.1283032394264543,"1":0.4458119204710154,"2":0.2707769318700722,"3":0.13580996847288232,"4":0.899783696894647,"5":-0.09539382796722333,"6":-0.18771771087169972,"7":0.027351789353900178,"8":-0.10712496651570053,"9":0.38293404641858436}},{"sx":1,"sy":1,"depth":10,"w":{"0":0.5967070334548341,"1":0.11296932446650214,"2":-0.21442972022650347,"3":0.12163040386116138,"4":-0.31671336995717325,"5":0.04212768505372059,"6":0.43859971220804916,"7":-0.04369419501920204,"8":0.1457675399038459,"9":-0.03631894328736129}},{"sx":1,"sy":1,"depth":10,"w":{"0":0.25179335048951096,"1":0.13884629658040912,"2":-0.11338596000074631,"3":-0.02214361953728745,"4":-0.5337964763950593,"5":0.10579995701418789,"6":0.46319549957032674,"7":-0.15395795609116125,"8":-0.3659433745960524,"9":0.220018604455516}},{"sx":1,"sy":1,"depth":10,"w":{"0":0.1881763752399115,"1":0.22599394148601262,"2":-0.8945289706368665,"3":-0.4255030713409265,"4":-0.18741273313845622,"5":0.22510744741183847,"6":0.4081031702127975,"7":-0.05656114783764177,"8":0.39480587779514553,"9":0.7806978937889697}}],"biases":{"sx":1,"sy":1,"depth":10,"w":{"0":0.1266335313242986,"1":0.08891292873402803,"2":0.10114225020247714,"3":0.023108972066733163,"4":0.0725011618403387,"5":0.12471954214730951,"6":0.12309327058864025,"7":0.10206412954684313,"8":0.09464163002677259,"9":0.09994161789662859}}},{"out_depth":10,"out_sx":1,"out_sy":1,"layer_type":"relu"},{"out_depth":5,"out_sx":1,"out_sy":1,"layer_type":"fc","num_inputs":10,"l1_decay_mul":0,"l2_decay_mul":1,"filters":[{"sx":1,"sy":1,"depth":10,"w":{"0":0.33302328166980755,"1":0.2741673431949578,"2":0.440453673435741,"3":-0.4529745686954552,"4":-0.015793034927831365,"5":0.027896625823700092,"6":0.6194593796913285,"7":-0.19714537524685866,"8":-0.06916548745318517,"9":0.18166685490779114}},{"sx":1,"sy":1,"depth":10,"w":{"0":-0.28428924918039916,"1":0.6338193745027996,"2":0.018890953849083226,"3":-0.06313681381680991,"4":0.8282929437478845,"5":0.09587275593292582,"6":-0.5111743917160235,"7":-0.12700634858535323,"8":0.36149908031010264,"9":0.6843479995733225}},{"sx":1,"sy":1,"depth":10,"w":{"0":-0.08719175625966148,"1":-0.049343722820738525,"2":-0.020529198629133005,"3":0.00620623110173378,"4":0.26509579615607126,"5":-0.13490873013066018,"6":0.15303440425139225,"7":0.2508165377340317,"8":-0.36871468960415665,"9":-0.7593080520289516}},{"sx":1,"sy":1,"depth":10,"w":{"0":-0.07718036748818041,"1":-0.2437247277398272,"2":-0.36171274679574855,"3":0.8942157092164359,"4":-0.09029963996542019,"5":0.146872193246388,"6":-0.30246241647096395,"7":-0.4397956958363435,"8":0.1549249159891425,"9":-0.12225392531467733}},{"sx":1,"sy":1,"depth":10,"w":{"0":0.4725074692607334,"1":-0.5682194608179391,"2":0.2549337220068371,"3":-0.7140510279367525,"4":-0.37191821709468553,"5":0.42748785175128207,"6":0.25965824298937085,"7":-0.0886290639153731,"8":0.5387110708409097,"9":0.3088227889400292}}],"biases":{"sx":1,"sy":1,"depth":5,"w":{"0":0.1815660987162815,"1":0.03044577995605264,"2":0.0384676828987705,"3":0.08890510726657588,"4":0.09703975579209785}}},{"out_depth":5,"out_sx":1,"out_sy":1,"layer_type":"relu"},{"out_depth":5,"out_sx":1,"out_sy":1,"layer_type":"fc","num_inputs":5,"l1_decay_mul":0,"l2_decay_mul":1,"filters":[{"sx":1,"sy":1,"depth":5,"w":{"0":0.811070302816506,"1":-0.10543042893812514,"2":-0.47921468173339293,"3":0.41855354805775113,"4":0.3643608167235829}},{"sx":1,"sy":1,"depth":5,"w":{"0":0.8666399195769661,"1":0.16242548561233794,"2":0.7276835965656132,"3":0.354464819404947,"4":0.34499916155006494}},{"sx":1,"sy":1,"depth":5,"w":{"0":0.7800104972925038,"1":0.05515914342062239,"2":0.2715698782230431,"3":-0.6441581540818271,"4":0.4051745241819943}},{"sx":1,"sy":1,"depth":5,"w":{"0":0.38263975604262845,"1":-0.07194561013365051,"2":0.15323539474679773,"3":-0.14410414735517504,"4":1.0220131887965962}},{"sx":1,"sy":1,"depth":5,"w":{"0":0.8160432651795055,"1":1.1010042891056038,"2":-0.05993597140736966,"3":-0.07284783103911648,"4":0.3359278519290877}}],"biases":{"sx":1,"sy":1,"depth":5,"w":{"0":0.14393198430049822,"1":-0.13200799971462862,"2":0.056249137365291656,"3":0.14136364461648437,"4":0.08378157678378073}}},{"out_depth":5,"out_sx":1,"out_sy":1,"layer_type":"regression","num_inputs":5}]});
}